digraph Tree {
node [shape=box] ;
0 [label="executor_run_ime <= 0.511\ngini = 0.264\nsamples = 256\nvalue = [216, 40]"] ;
1 [label="io <= 5.0\ngini = 0.133\nsamples = 42\nvalue = [3, 39]"] ;
0 -> 1 [labeldistance=2.5, labelangle=45, headlabel="True"] ;
2 [label="gini = 0.0\nsamples = 39\nvalue = [0, 39]"] ;
1 -> 2 ;
3 [label="gini = 0.0\nsamples = 3\nvalue = [3, 0]"] ;
1 -> 3 ;
4 [label="executor_run_ime <= 0.546\ngini = 0.009\nsamples = 214\nvalue = [213, 1]"] ;
0 -> 4 [labeldistance=2.5, labelangle=-45, headlabel="False"] ;
5 [label="deserialize <= 0.137\ngini = 0.444\nsamples = 3\nvalue = [2, 1]"] ;
4 -> 5 ;
6 [label="gini = 0.0\nsamples = 1\nvalue = [0, 1]"] ;
5 -> 6 ;
7 [label="gini = 0.0\nsamples = 2\nvalue = [2, 0]"] ;
5 -> 7 ;
8 [label="gini = 0.0\nsamples = 211\nvalue = [211, 0]"] ;
4 -> 8 ;
}